{
  "layers": [
    {
      "activation": 1,
      "biases": [
        2.938214808014167,
        -2.4273516923872958,
        -4.950463407176798
      ],
      "cols": 3,
      "rows": 2,
      "weights": [
        [
          2.1756246840228712,
          3.9692607321240265,
          4.345675308731609
        ],
        [
          -4.993510113864105,
          -4.321708190417337,
          2.157135808283723
        ]
      ]
    },
    {
      "activation": 1,
      "biases": [
        -1.2360727270804366,
        -1.651771732245939,
        -3.477275221031283,
        -1.227926059124109,
        0.7174594312970368,
        2.038910430566755,
        -0.6619073794651142,
        0.9579652519345037,
        -0.7255092894316657,
        0.6243994001000449
      ],
      "cols": 10,
      "rows": 3,
      "weights": [
        [
          1.9072164039661768,
          2.9984043176088218,
          2.5468048261029415,
          -1.4625912873170253,
          1.9437472091989016,
          -1.5200530655462094,
          1.7660556866666484,
          -4.003261876635428,
          -0.14712906522586874,
          -0.9800866673107581
        ],
        [
          0.3477490509849327,
          -2.198932435577817,
          -3.3742813741479982,
          1.6117381705859704,
          -1.0402001929879972,
          -0.6850062458240647,
          2.162420749702319,
          -0.16816678062806403,
          -1.0325202044816904,
          1.9578759963913532
        ],
        [
          -0.4789007307987069,
          -1.5970183681390469,
          3.260505075047937,
          3.7887452275028988,
          -2.7712939917648365,
          -1.1194843028471917,
          -2.4470581295989913,
          2.276581718110413,
          3.0789565615031846,
          -3.709022103884563
        ]
      ]
    }
  ]
}
